function [Y,Xf,Af] = PredictMyCarKNNFunctionGradientDescent(X,~,~)
%PREDICTMYCARKNNFUNCTIONGRADIENTDESCENT neural network simulation function.
%
% Auto-generated by MATLAB, 13-Dec-2020 20:59:38.
% 
% [Y] = PredictMyCarKNNFunctionGradientDescent(X,~,~) takes these arguments:
% 
%   X = 1xTS cell, 1 inputs over TS timesteps
%   Each X{1,ts} = 15xQ matrix, input #1 at timestep ts.
% 
% and returns:
%   Y = 1xTS cell of 1 outputs over TS timesteps.
%   Each Y{1,ts} = 24xQ matrix, output #1 at timestep ts.
% 
% where Q is number of samples (or series) and TS is the number of timesteps.

%#ok<*RPMT0>

% ===== NEURAL NETWORK CONSTANTS =====

% Input 1
x1_step1.xoffset = [0;0;0;0;0;0;0;0;0;0;0;0;0;0;0];
x1_step1.gain = [2;2;2;2;2;2;2;2;2;2;2;2;2;2;2];
x1_step1.ymin = -1;

% Layer 1
b1 = [-1.8989291826456398127;-1.7364095610512795265;-1.63693694086045749;-1.6219334738002699758;-1.471189517836323013;1.3784105719502077747;1.2098992260283076838;1.213140377751747101;-0.96430222364619155861;-1.0188611354238283901;1.0518266709009267412;0.66151828715808647097;-0.68636243860247869719;-0.56927013439105833559;-0.52042730168886353059;-0.34904688781130255304;-0.30778852986475113696;-0.16626944733917076169;0.017181339334826108145;-0.016154368263423455471;0.10929476555055252229;-0.094022567471615206558;0.15216337465049878386;-0.43377971317966862452;0.51107943935159050319;0.44588383864097896891;0.42223653581289366521;-0.83268149027875915102;-0.85766264754516863267;0.89286275410440540945;1.0274493079917323968;-1.1580491182760135338;-1.1920494211365384452;1.3336131056937423622;-1.3562476524005355749;-1.4872141560115912373;1.6934436896477376155;-1.6401507678176270311;-1.7111703474325290486;1.8508815569380669963];
IW1_1 = [0.21865587661428390054 0.52204729810512617849 0.37095040894912462148 -0.048634927204842665072 -0.19751388432443808818 0.30548611076008236331 0.0087849624207233436429 -0.50705653896074764919 -0.40773567636147678428 0.83737108830570217144 -0.49218786896594718394 0.054430934511097012196 0.8618815317016510491 -0.15296560058736641263 -0.13415497856475358529;0.67782983037916200164 -0.091543989203432374335 -0.12983693042097163572 0.49759797793293880641 0.2813463817351137819 0.41053135913803906476 0.59642081494176901746 -0.47531577262812563234 -0.31203959256698010627 -0.14930468002871230548 0.72443492070196247035 0.55883821305052872042 -0.4614880608530159134 -0.22131795109154153711 -0.37912221959966019291;0.34636369981604392398 0.023262103281580921027 -0.43410128795257968415 0.22551970634650378433 -0.64331288442068612632 -0.73545301499973381176 0.50133957857835886873 0.44221736520962745542 0.70570452992333421172 -0.29448805594904692295 0.54575713614157828069 -0.50073973245498692997 0.32879895014626847605 0.33457589586172831186 0.16336654323350907614;0.41111422723402524237 -0.3334588740974757104 0.73154764264919169836 -0.48508146773545618435 -0.39185821912754131846 -0.15638876528042022773 -0.31678595814846305379 -0.31318756861871527297 0.30239279510420258301 0.59977915320037589186 0.61243198236086016095 -0.43822433089816864582 0.40850331976573256432 -0.20581141526881602255 0.38987898898713851947;0.42219062582595906497 0.63992610973213037706 -0.23178081529423358309 -0.042459271567810666359 0.14586069156246117551 -0.15635630692090879412 0.84031391116537590413 -0.3057778879466773736 0.019799330877194324524 0.30257286615370404537 0.56451318736277233956 -0.075626489160166079917 -0.66047248726189922152 0.77446253538249953952 -0.24982733712777763224;-0.21472999968992240172 -0.61739043917187619304 0.075467245982102304502 -0.52508396329652140544 -0.48028788641972752771 0.59593919511336379546 0.43926586759885444256 0.65299011382880034482 -0.42389005426453735259 -0.51008484200115378204 -0.56057770861479083724 0.18265721716967106558 0.13589144556546714493 0.51428686760949871015 -0.32076768598714555658;-0.71460634088553132148 -0.27915776217771265388 -0.12388253676404281656 0.28654358838645388463 0.70977477665716381949 -0.70397459299687548118 0.29524929417387529851 -0.17574142661098721141 0.41752086029159873881 0.42586113113890428084 0.64885880065835488395 -0.14779728182680529347 0.22310978051571386804 0.72889080560992181024 0.25275976925415949426;-0.23776131741425446386 -0.42964020192355356631 -0.50566160561852901978 -0.50949184399983105109 0.22949915085524413838 0.094114969650523780387 0.50740235562263269475 0.56334479392055636371 -0.44647798657442094861 -0.051234140712510291282 -0.37551994733257532122 -0.82305402368535718338 0.0050465676977687300153 0.50756699680802686014 0.68261993396074549523;0.49032033821385462291 0.54413835785004538437 -0.60591085596803195834 -0.66652713716734046656 -0.066406742382315003814 0.18003702283999017952 -0.49812942739753895971 0.60277272593912267773 -0.49024158201911377519 -0.30319500463079784858 -0.13860383162095882281 0.43578349112386510766 -0.075875675425897334825 -0.42496826825192651755 -0.6859645585169885651;0.87174485862317951934 0.74777261503287917321 0.33847245228629829761 0.35504280908744018097 0.087345897885685641615 -0.40330693140600043511 0.51093029977580761702 0.11180543158898209599 0.21198834051601619932 0.31328919324825599269 0.15167048059637783242 0.20880085736581643907 -0.27752632006002592169 0.47821207370864271535 0.81217171974756674491;-0.03976135510075306384 0.25241739381993727465 0.60579184339161618045 0.049778676554650742869 -0.087600673669496670337 -0.5474323539597895083 0.40602431528955718054 0.52153294802010152775 -0.24687915777275773466 -0.42602514403762892226 -0.54262478902400668179 0.59517227388589266646 -0.38570426734298479676 -0.61625440049224855521 -0.35888071972327317827;-0.39421169110573045513 0.7550125346264285886 0.52818622559937988825 0.29997767174277290003 0.6182239725699141264 -0.47522272500935203166 0.47577419001348825178 0.59886750691353995979 -0.57574571159939802456 -0.32126393561901633866 0.32861533479997545593 -0.24313642362409770836 0.52105817276297372587 -0.041578417549341925574 0.35898391292453080137;-0.0693114360136225377 0.20668061665321607601 0.49842074159662985711 -0.40154712376879764246 0.58662238666280408506 -0.34421276451036125765 0.033250847559391068231 -0.24763269043154848004 0.35024700937101360676 -0.69070576646476355975 0.43527748142207811632 -0.46789496715407485894 -0.5447333192266580193 0.50423040112748662711 -0.63888776900101929002;0.3588033924433936539 0.59498794276830091476 -0.54867337166335083953 -0.10757873831664058195 0.52869877799465314627 0.83174059543391387628 0.46760039647771911575 0.67559544257888282104 -0.046993603800416068605 -0.70904155406244873117 0.090399338467086753912 -0.21183212923387251259 -0.21319570646343891096 -0.29492422724687222813 -0.046850981211179983099;0.018714691131074507463 0.070971254202421452106 -0.12630048895175538526 -0.098184132500572271485 0.29343267612415319112 0.7160764935994835545 0.17781246371547013152 0.43896770606600249431 -0.097026613194804850471 0.63516990624352842598 -0.65673778199683718881 0.28308757264597284031 -0.66685701470750402553 -0.5928083198538599552 -0.68564186319617859144;0.49938490522037060071 0.017041250631374876834 0.6314151127539653352 -0.25324556025573380369 0.19022051714922277865 0.34755811007135289925 -0.15759373201109208584 0.19037414694588392083 -0.66529749411012584215 0.052745576053993326049 -0.83114953282351888841 -0.71674734718862487259 0.51561613007216766658 0.35740525595096395151 0.21542508052262415719;0.44507363872176924913 -0.62087331721187699607 0.45947649715954053118 0.45240655370972615579 0.27097361908415351639 -0.75409265786288337541 -0.4299940640653014956 -0.41898036481823142108 0.48435614495887541198 -0.17275126684360239682 0.54644220535365273239 -0.44861519694085888466 0.33725679552867682265 0.39319141689658360095 0.22259814460186200247;0.3408788115840861721 -0.85352060498519055631 -0.11389285646607977265 -0.62969458252506871343 0.24073421165785763298 -0.099858779782493967137 -0.65337646600583021428 -0.19478771507747535963 -0.81103546655860969672 -0.25123654911162907055 -0.25213275522035610843 -0.31025183312140292013 -0.042407986722738155727 0.64261586808964976658 -0.4943874400094232513;0.75911763486911898458 -0.27784001926197315901 0.40365980952863561582 -0.36946409050295808685 0.21141191213692656081 0.63859376120080213468 -0.70618016843718922626 -0.55276107276783492672 -0.81050573281967408512 0.070624076244811317959 -0.3795336588845072967 -0.4065719450304582927 0.21896644802605286229 -0.25334276138617523033 -0.3229825589844794731;0.27545082729136988187 0.61339245803035868931 -0.022684155261750157256 -0.33533867846142684233 0.20354619929858761007 -0.17341449905032435552 -0.59220003405190801971 0.3106416273195991562 -0.46202669882176894411 -0.60508851444489741844 -0.58148238850033384661 0.073496747560278033462 -0.79734512123969991659 -0.50887097998352426309 -0.52181090871459090419;0.079455419694287043875 -0.0007297193361406831974 -0.61231015149196454939 0.29491656357288187351 -0.54046604607285875232 0.36666080054877514538 -0.8080580585973521357 0.61731563599812588894 0.19630780496940972157 0.0089875280108790683159 -0.38546900480663776056 0.1573942142988083992 0.60945694539520756106 -0.42626655759639109355 -0.59823296884023413611;-0.190138673195994784 -0.5833527657808424971 -0.38662782502802178763 0.37402908698491121875 0.11993634116683048185 -0.69241042569930666417 0.57161687279499440173 0.64762037596651378379 -0.54718192470739124289 -0.32747643377175067458 -0.14518728270011696524 -0.51029891827372897417 -0.40875146292347847021 -0.3193001175083203802 0.52818941310141875878;0.32586962097864319299 0.99825280779588976277 -0.32563194574586629138 0.84756706363127132242 0.27046050920682013219 0.3431068758532876406 0.4761714701747209455 0.23201384735928920477 -0.61832591277608295321 -0.14105506310469315134 0.40255661924199837021 -0.050062420678174783528 0.21270002033446777645 -0.20073342099954361029 -0.1477247775399485874;-0.24111086652872770753 0.45566587011239012561 0.23001856704478057525 -0.5569427999898387549 -0.60981768500796096344 0.57444587147345260725 -0.56949288762802185992 0.031741802869782557994 0.6172225670026944 0.53046658217783482225 -0.11218242258393297528 0.83181334243678839435 -0.074409382540181909227 -0.1643976079356513631 -0.13701635551135274427;0.40739290813806783298 -0.71682403855369225543 0.55380362864813015289 -0.14453024727105570624 -0.627356667796303058 0.3122252552556469829 0.57199054422560413613 0.16530928738009259549 -0.091234172299825777586 -0.37886587112516539877 0.19432160198251613448 0.55530476920431381949 0.46141703022613422824 -0.5924304894888351436 -0.12619359227545234869;0.21318437123079508888 -0.23046347460852681377 -0.39396729128122864871 0.53234665725858298924 0.68792790800360958947 -0.34726543829084133286 -0.095043185475621225211 0.76111683306652178072 -0.028987366432561594703 0.35851828845345290464 -0.57716410931034678455 0.20090681098325349763 0.72474191753213146328 -0.15810184835149040938 0.68482001912320389359;0.14789892526449116561 -0.090422614899401371202 0.76073166096327105024 -0.051859436842117204169 0.70157221289161764144 -0.17572732084545195086 -0.21886580829899693335 -0.068029372949807237481 0.69074434287008690259 0.12971385726348449996 0.35660799630592515674 0.64286526581608116615 -0.37756253190556382515 0.81487890594098844055 0.38900115914838423459;-0.098153757325972396108 -0.5392794718239357632 -0.38164416505561882254 0.30541344382155721782 0.92289506833973933286 -0.0073507650445789277788 -0.15015213772841307094 -0.089508647744980462946 0.13786417444716397851 -0.52162105253331547683 0.15635816931598417456 0.051960382809774205426 0.35492525369887073516 0.7046458218473534707 0.59515962587767790026;-0.042770059973726182179 0.50069496860590756437 0.40379074590001717837 0.33459286681997452151 0.84899414835146058689 -0.12418675150956558217 -0.82747292702450803148 0.0022548354673624553327 0.17301129176914367691 0.22019577588367125753 -0.56729223255184979546 -0.3837967392708218628 -0.1884563964291429139 -0.54252977813974134769 0.23148499701505204085;0.13958582072467817792 0.78097290992714318847 0.24542370557989051649 0.3670251778891474026 0.10148537779849377272 -0.7154885767781259398 0.14933622044570421528 0.81053395779410575273 0.30870112470676608352 -0.082287811344773739708 0.0023679795598812989656 0.50604840948026796887 0.56321461643455872359 0.34515109138007105116 -0.24536625908371553773;0.12898210529827103255 -0.57927617000181075291 0.66480773367247281147 0.60226625372263342673 -0.76618422010136433276 -0.099042896239309383133 -0.20976286805342780895 0.5874130109344800621 -0.54099827908091557838 -0.71081874849779302927 -0.090385278261751286766 0.22908955310925560589 -0.033925630506221618465 0.17680086567285688282 0.037214784087089107512;-0.35374815554761651626 0.19471809061311193267 -0.12894735452544953125 0.02956941706577385226 0.60271631240525347373 -0.56861242090778552072 0.49922027367477589399 0.14216159260703845058 0.12692982277796394097 0.69792391676757481456 0.21837736920047506883 0.61075974892117557147 -0.62430498242258969377 0.75167748696128233732 -0.046969067909179741671;-0.21433068720057057988 -0.48367454802932863256 0.54211076779068012588 -0.42281045522268101422 -0.06693118818282189908 -0.56712370943047762939 0.308768447797413359 -0.34519720194012259995 0.3603154441933987262 0.65830721395113867001 -0.42477345068501393133 -0.52124744957305613191 -0.462156334026567861 0.17443577221839148828 -0.5950482380087159795;0.42053632747703822981 0.18486306788750281327 0.14613224387127074499 0.2189958343262688456 -0.35217590625740147203 0.4902778633779019124 -0.0054605248482702270843 0.35907271155059200529 -0.45499899384318748252 -0.33541349928816782677 0.68031991932933921774 0.72036839035522493013 -0.71110421325785944102 -0.18324845448318716201 -0.46210084968805553718;-0.67363353636815614944 0.7388473508992873251 0.60137205662684711793 0.072294372212709706593 -0.52661999879630660981 -0.14280052491198266806 0.50972803526736687463 -0.41324314258861355453 0.13225978907696842035 0.62457359891953945219 0.086797902331162857248 0.045317178686320506997 0.051497032446510541959 -0.50608344989061471164 -0.62206683652678529395;-0.33542842950067880414 0.60728140881534387052 0.28399379530470147959 0.20462841361515851646 -0.60604868308916948205 0.081899938415939080305 0.56014750150960446184 -0.51222203572876978672 0.69667637819910088748 0.030456070829373311365 -0.53103551198690279733 0.23475627818493591259 -0.62617921839507495463 -0.2702744736545577009 -0.2448616155656768989;-0.062515478168133631343 -0.62153065033642573844 -0.078626367052850282269 -0.40305851632478761903 0.30645731624646815883 0.44445426118940273286 0.1925601124537575648 -0.036619837458193617297 0.46893990144117708718 0.39025330451587375569 -0.78869053691796997541 0.29304011592971024314 -0.0088785900844147586097 -0.22412086702692010642 -0.76229968571633655028;-0.73761167446347986054 0.23539530612217449135 -0.010524846566647526672 0.72879710604534342355 0.34775726217551611308 -0.10473086951452745264 -0.65179137098950656881 0.71562297364273064204 0.20864334083140648191 0.1091327696401998143 0.70033021983079313255 0.3294987710900321165 -0.44521367622574675726 0.021210203049222369626 -0.34439314198558568236;-0.26726806037278866279 0.1349408443085818865 -0.39465248631464500129 -0.52432646740428601184 -0.074353979135690348445 0.39412797827445178456 -0.64335175664282695518 -0.1136126045984025279 0.34570948305369864073 0.030135026990273695163 0.022694957068173718384 0.85533227945321077534 0.77935706534178106342 0.69141634285443387409 -0.2226499469174665069;0.38855009239725429859 0.37433487488839439772 0.21722703366542564507 0.42490266814640675896 0.023783013242727458342 -0.60581136603103846738 0.29936119859485116335 -0.11806292022550271548 -0.70037113913352899708 0.10407650914060188885 0.57964465507550333445 -0.55937584884111479777 0.46277812277289259724 -0.43898306400478476208 -0.61082430939052434482];

% Layer 2
b2 = [1.5728648662048598794;-1.530919237267268862;1.4011939266227506629;1.4096016452560165;-1.2646298930403936378;1.2039523347107032869;-1.1374086620689025651;-0.85101557856928777834;-0.94917407220920269051;-0.8130240826977932489;-0.62035069324750147235;-0.50882366377081100772;0.67526906633847261219;-0.38521006520864059519;0.47461347274989046374;0.48385674892286956172;0.13114090854677601383;0.018180800037883932535;0.14308968794111315281;-0.0072980565283545292127;0.10115491601214438022;-0.0061249714256988770783;-0.16393917978169339489;0.40573971667036606847;0.34336107039626428961;0.5233604130383079367;0.57884302511126739521;0.66800236456008865726;-0.81255567172409348675;-0.86711411341471988923;0.81423937179425553978;-0.76425758808311661241;-1.0080292569440532091;-1.058249104920912842;1.1942043387559579948;-1.0861569806930291282;-1.3637451217341829413;1.380319366377754875;-1.5605369772730577349;1.5297105893589453274];
LW2_1 = [-0.34623369736661474549 -0.35094561221772802018 0.048730303174394550003 -0.040258031588088390162 -0.29442876096287462495 0.13864456193487798008 0.41815005471477806331 0.23452570128894939527 0.025301439451217447307 0.28408319300947149078 -0.27374011786065749474 -0.15131645650637176592 0.17556750755685693322 0.16855786803139669039 0.26501265468863727248 0.19006538898352498546 0.06372166619317760905 0.30266022047481005997 0.061366274360679214095 -0.094239461230929050251 0.19353707241074233347 -0.067439231828184648121 -0.10508919978531207351 0.034764417408700454271 0.089527360211032525061 -0.21474459120408342927 0.34711713268015653711 -0.34043934834867178862 -0.17578505808812880384 0.15582672294710772642 -0.27636705685412166211 -0.40069239817301127715 -0.2000159474587868691 -0.38862715958586596665 0.31018410591185280323 0.1919879381143183017 0.02907718397716910208 -0.1684685430620388169 0.26654546120022509781 0.20453824383029889367;0.41017959129611952784 -0.14792138817141786689 -0.22880505535505091252 0.16133170626886711441 0.058063570744301191973 0.082057513315831331902 -0.22612598599936917232 0.073267861423570584956 -0.37747480644331948829 0.051220028889059777966 -0.26448638996779710864 0.26766288747832156503 0.0090878026888925531046 -0.069564290881544726952 -0.13484842709318467513 0.18691763828263674441 0.15428357966803044055 0.30465646632387594073 0.019802668480236776394 -0.15198635425372053476 0.21661322438088309594 -0.2853316750429085169 0.010937893100726145054 0.27346692804262806575 -0.17095024111891579666 0.00076379964915684525877 0.31715224294290450535 -0.36706178358555752173 -0.092872274744699917504 -0.0043140892902431117809 0.25807522181125669425 -0.090368617225232136803 0.2303422783991776468 0.073302244840416933003 -0.092377242729051470271 0.45797269166491788583 -0.25891119293490322262 -0.18044339969866068918 0.31014098290169689331 -0.23686676840440559766;-0.23743470043133155234 -0.37300608540678703573 0.32357911207033596135 -0.098546576135524699414 -4.3320271019595409209e-05 0.060847278632633200468 0.23126935906738915749 0.29036828879507414758 -0.021427111890875427669 -0.35745854925750036868 -0.05301193825050683206 0.29233515529810261135 0.17258295118348479513 0.13620592305704937175 -0.40233676437939386306 -0.10938019162900831927 0.19545907220196334642 0.18159577442131660807 0.29736383141625533089 -0.16228941750946815348 -0.12410838373806151735 0.11575405815517481045 0.29109101843125279041 -0.17485122802984809365 0.32857623055506723908 0.23135657434348141925 -0.36178052813095207263 0.061698731331186008886 0.063065827183489145402 0.1082084233071748669 -0.065203161941476461827 -0.075404291257733055409 -0.34386414302988232983 0.39016294138652252155 -0.34136454741669342017 -0.094948761243569587687 -0.14716233052347862942 0.06391449053000090863 -0.44470549707234768855 -0.31721602081334959733;-0.36512148988166476249 -0.089351407848640970744 0.30247909033779279975 0.26257071754509797579 0.10341574201178409254 -0.25457144318747937373 -0.30026453149285048383 -0.078659645224724739077 0.20136256654293160917 0.27238519435615715647 0.33106145741153081286 -0.075790775076227986928 -0.20659820971144240986 -0.22717386411419979164 -0.12847963181236873864 -0.22929524684162685966 -0.25561268311224255578 -0.17439500723089296219 0.24786852250082505589 -0.27677886669669404807 -0.12020970006016173937 0.074450305457390106301 -0.26491436799459183726 0.083919319558483848609 -0.084791115578227521654 0.20840768338328286013 -0.090575597764608536955 0.29022250373959113112 -0.1301256740018854885 -0.38352735623088990424 0.29620202461261596616 -0.12474092398453967556 -0.30770904689168471213 -0.017863836778822202167 -0.18899977992335140198 0.017362344581472906324 -0.24458364789470907197 -0.40622363280241408079 -0.17848677287078193454 0.24951537076658303338;0.12759804986876438493 0.38516527838811509543 -0.27255364178162128086 0.19204496070482829362 0.21250231050870710403 0.12239573794691846476 -0.193802566877777388 -0.43598742310261906496 0.33343652588818423199 -0.32484492601209563611 -0.12018686651503882046 0.39843547054254124795 0.066141183262719643876 0.099566279647009411913 -0.058754169802674602319 0.13133828744623832208 0.045432317962884320728 0.25676607546377056002 -0.15866796380574713088 -0.25236147343544590438 -0.2622085663612875317 0.0035027741099615573861 -0.23338832503912834704 -0.20660582845285313525 -0.2227887828621848143 0.15565846304921429621 0.39621805431905005035 0.20386937465023863281 -0.024996368926394216259 -0.17277144672629152211 -0.21298049323106568731 0.018091626736433167461 0.21603378023560823595 -0.36227586230790709276 -0.15541671302508983099 -0.27173381523060607945 0.2586756385126203206 -0.097107748465867990695 0.30197127589381966839 -0.42763021516417704104;-0.21789513115616260253 0.33136419343882073107 -0.19922676710085993057 -0.0748351411138351158 -0.17771450284736733938 -0.23351496868162319176 0.15035136070581339718 0.33408649993852046478 0.24454948301843046354 0.11819133779432063058 -0.14603383135960074091 -0.1844009970443702684 0.25580161524692984765 0.024116335548747869222 -0.15527385794093120919 -0.36401554711157657618 0.11077274648920083788 -0.074644963450756829371 0.39875986050100042934 0.16400954944360496279 0.42649716115720226473 -0.30930189705389188326 0.35251200203485638651 0.31346941757195878608 -0.13591555419516107572 0.0040886406993819544159 0.24247523957143932161 0.051549515500896557485 -0.081811540442670624418 -0.017456184860373057111 -0.22223543492416186762 -0.42210665354974974406 0.25968736367220734973 -0.26013497039157179591 -0.27138355615750014982 -0.33061995617664829972 0.058883049581219752688 -0.061168544051609513579 -0.32403323943608769442 0.37096063776013582514;0.2374616727619661416 -0.20904322326292401613 0.097172975430285288279 -0.17098418612624552426 -0.026923237741760037978 -0.32945531357262791694 -0.10639552272801150457 -0.11813691733941307505 -0.084447380969129570705 0.3442596483609101643 0.21638155272412482044 0.06401197643845069063 0.29003878807745014923 -0.39755144046212786968 -0.050917068566693632348 -0.17279194195388974942 -0.1357009030707699293 0.24995615847720215053 -0.46463080191928302076 -0.15482868072701203022 -0.042189706105613559994 -0.26323073640340094448 0.36449206274967727026 0.046340248345101517358 -0.39081788745684525876 -0.093829729837125341874 0.25282403646884388237 -0.27075982827240957507 -0.22523912458797212821 0.16715036681294234699 0.32634098711976788909 0.20743783078645508522 -0.35859825563382280444 -0.016962426501389054473 -0.28600010824407789967 -0.038291847365708488182 -0.013011441731214877168 0.14719984005015299133 -0.31369106344793945551 -0.19553523799319391663;0.031583815599235891269 -0.034892681749200918362 -0.03045463458561892614 -0.1234181975643514062 -0.050997521162488790303 0.24462461123515183425 0.27058342609705626769 0.54648462469727199231 -0.17716132638859941051 -0.02911589673535032452 0.19200844460473801001 -0.29493322452705483805 0.081017798224683801322 0.15112208092729273456 -0.24879717051309252485 0.25477410057651067588 -0.41978548708162732872 -0.074304847068598758875 0.36737961144652209189 0.047864653163502510202 0.29703293257259816285 -0.28715386124637071186 0.051631559915106602088 -0.3033159083205972939 0.15865401962506636702 -0.14508712917991953284 0.23104560675921220758 0.16091868224654556907 0.28247546886009960998 0.14412245317870003847 0.13750769526230191553 -0.3666860211000174119 -0.25983075806598693314 0.26279392443072596697 -0.22443969246907113924 -0.43074771272203504768 0.39234699688893737157 0.20474995950149763035 -0.14397578022589122004 0.15600620951476096288;0.31444706925988713531 0.23108079880688217611 -0.17631206083310460575 -0.16723598236674652728 0.36702061791749723829 0.092356922944555136512 0.38032469601179363927 -0.41416552366176467848 -0.11809242972897809887 0.36707192558350570932 -0.36225548279480801472 0.4018358349798301643 0.320500538155073178 0.34871145243466361574 0.25242624608169944578 0.22551901229954063322 0.092607788117620534751 -0.16616871808511882169 0.29902927648659843873 0.17715431885608973195 0.10618855749961574053 0.25988423131475796302 -0.10452710617813296134 0.16607007496139364333 0.19826278371076697105 -0.20068422945074715358 -0.012783235516074369434 -0.078555280554835002493 -0.19375062182062469107 -0.17190566186237146717 0.17943795770325335348 0.30953088457283567392 0.26430568381359798025 -0.35642492581672446939 -0.14545973285327359892 -0.02391414181159606106 -0.24721124030597418919 0.017180145024782659396 0.15102589526116788621 0.16972012333729413758;0.19184513931882388182 0.010866997230364043581 -0.46237068914560303101 -0.19859556360365857031 -0.27496119601308860458 0.38235853025112859216 -0.26035449637011792712 0.02485303076230890168 -0.028178357512684198277 -0.22231121614786636398 -0.17468580102462666348 0.3714827211497190862 0.074744952964985150734 0.19769806500722300613 -0.13653598677110045934 -0.2374679252065435564 -0.043745921505598583945 -0.058790677920128799061 -0.13391053973626540485 0.035634465187080167914 -0.019919221196237419519 -0.20944363492098819202 0.02931944224430265214 -0.021913357588958553429 -0.057934783842062471948 0.24503524102198645518 0.21888422260612991344 0.0493149407391515332 -0.093875149219098230624 -0.39720080214283076669 0.010308803475830541699 -0.013963197357926110734 0.33543586170477279751 0.14995388413553603635 -0.41150299864474282341 -0.068067264981978847782 0.19764685341941659602 -0.26954610964764291747 0.18131343351669321207 0.033970507574005819051;0.092900494432735708505 0.17972011490994871385 0.23775364055784797834 -0.37441075109889709882 -0.38285670445670033635 0.35587800780701817072 0.1520394228644205703 0.42413479054833480575 -0.26444405645551216644 -0.45783613206360307402 -0.18162763064847473049 -0.22622944317628582156 0.29384597724248734396 -0.31115515689520217846 0.018794104082084751167 -0.17118341760825739328 0.19982147397387658994 0.2385260509478071278 0.20982758018411584722 0.46849912656572578751 0.25647839494079760492 0.13801170083248687215 0.1909381535949822295 -0.15060706164617254643 0.2127315772724981402 -0.09914615314145076852 0.038888686392991790586 -0.14578532192153559333 -0.22008509133235318322 -0.21554541913748809234 -0.19245114312396580103 -0.14542134317057567316 -0.089815945005605607454 -0.051456076554110580235 -0.10984330328571982605 0.32284137780033328458 0.11237640945456066344 0.017136976804533975843 0.034985708997810012477 -0.039330051603872699661;0.035097305818640560371 -0.090435418854788215959 -0.4985319257527263126 0.22452737785590701214 0.21101656748674682551 0.46596251084927536867 0.2669306127034341003 0.0014023492697422326736 0.10125257317065304574 0.22605455248798581036 0.41312817270993618113 0.20206036908377683625 0.39464279945380714709 0.10536640304772583454 0.013654976494279904425 -0.0060387008526563675306 0.13034623551999549584 0.084553702007419198616 0.40066107079236967792 -0.20088294746218723907 0.31791404897293912279 0.083831479669895209161 -0.23245446769544417243 -0.33317387715358154354 0.078117355060691007207 -0.015985071137657250184 -0.14412454800059706916 -0.28317424316503475579 -0.22357150953311785702 -0.1331718742863078897 0.04901200928359124992 -0.41020635506720637409 -0.2815088899020303792 -0.074179793980086172756 0.31412570002729683916 -0.33830672135699024761 0.3357660869566171935 -0.056160771604363730891 -0.26805794807769611765 0.01079433652111996822;-0.36959039517246838891 0.1663389091371556272 -0.4372529519071297055 -0.31786410733912223714 -0.029249160305489817213 -0.17699416001419673861 0.41026015895359291275 0.23668728285009477119 -0.0086992515047551802199 -0.050226585952548495617 -0.23687411446317177544 -0.36220430196123459821 0.30360903823732221518 -0.22410553891255882708 0.24631240990748445863 0.18178826937321979074 -0.057663994118330716421 0.1583464568879598966 0.023555712033865350979 0.15411966778332014671 -0.28925610966375692179 -0.27150247097273966235 -0.0071310153919043181223 0.28515657627108492722 -0.45807514782425529098 0.21158718236584292405 0.14734550863757372996 -0.057056167910745907157 -0.26550684666080298646 -0.22522132632946292863 0.37221828787466687549 -0.3634741019683222496 -0.17137825979825335732 -0.25531341312344724148 -0.32930462121775327944 0.080232043565212546321 0.22617321591838540629 -0.013962960677521696687 -0.08544899633259039895 -0.19747865414940879436;0.3710010120077956719 -0.10244351231431250704 -0.35315643728710810478 -0.17167574725280088099 0.01179949970412099737 0.4231560305821818746 0.008719269357772852988 0.31670060294791718691 0.35870424458227118114 -0.49825206860071691306 0.31978834674755346468 -0.076031398710157530041 -0.11977103064874446148 0.02501315687522769407 -0.049531885592538967 0.059548733169727925685 -0.35578832447072877843 0.24310005334748735484 -0.15293806140506102653 0.34584229648189979134 0.068652248586131850439 0.120438110163637771 -0.33857758275397104031 -0.30985266408642991864 -0.23980253837731527189 -0.29896147882388002248 0.28161055126326350884 0.13158744215828485635 0.36146126342182838265 0.18574621679101482874 0.0049276286268946740618 0.046675784270779389906 0.039877228554798332949 -0.18711339507843816055 -0.27401409250175706722 -0.29075733492144956172 0.06863481115233520391 -0.38106745762910193553 -0.10040088483077623527 0.22619642254115410185;-0.37164119579104498703 -0.038139847426613394943 -0.10009084860383868354 0.085576457174133258032 -0.26908909229024735588 0.1244799598635158433 -0.10291757207365605231 -0.08989215086345449246 -0.4407155631464632628 -0.23085117706421182104 -0.1659416483850768842 -0.022974332486023849725 0.049570235139515236855 0.32652639907660152563 0.27512135912945068217 0.071791877758630620598 -0.076405561006155225945 0.13983527550050184329 0.27402425228054155815 0.069994508318507273059 0.45195197080248028509 -0.50545455962477925382 0.1034610754634227997 0.19837618099754128487 0.059035423375964964088 0.18919403526759279166 0.14503611368753915878 0.0083489037864210389334 0.3558225384605924746 -0.18189990952654092049 0.12741002696234673963 0.12930557791988842031 -0.13488075420039896679 -0.022909286390233356973 -0.53058575251878425938 -0.3345694611899141524 0.17313897881482936958 0.092030357583522029441 -0.21958210210690659592 -0.22936700269187973444;-0.29325648971584161728 0.15685777304075376737 -0.20942979114682677699 0.055508262446749563612 -0.18360319647729106407 -0.24234762937589732212 0.09146368733676217555 -0.28478832718996882623 0.33087162828770899647 0.26536222156644057035 0.11869628469154504258 -0.19053437812886800384 0.15359755936929439524 0.1300171104482898965 -0.12488691273526833503 0.097153172469815529677 -0.32745458668953281167 0.25422159807459082659 -0.10588402933740931333 0.20329161445763471727 -0.23314778323534421367 0.28437273824565184599 0.022023728449130090118 -0.39018440735317377888 0.36787069085506279853 -0.12995318629254926091 -0.31476299846773542201 0.24747960905971536083 -0.33104635096319234844 -0.22192308799811560904 -0.16903689033128760366 -0.17815494534015638428 0.050851786353998187917 0.1509010956711376028 -0.19689358672892942614 0.27024685418258714842 -0.054824475784920341515 -0.12605097557735131519 0.15840969502285609516 0.22510331302010497256;0.086955680613740690688 -0.26160968638159404209 -0.19792340345648035127 0.1193274648184561304 0.22975673143164010437 -0.037540448444783665327 -0.19793539033028359486 0.12216295892246996357 -0.099814368304759315542 0.52723754710332393358 -0.23462187997603445311 0.11178656437643240407 -0.1454605680011671065 -0.10496141146008393374 0.072857447279526255102 -0.26174146678284954115 0.12000608511005105006 -0.13668834096753190721 -0.43760429190656341403 -0.171122157919890161 -0.0083350034615499914853 -0.086339455925531050084 -0.055574783890994607083 0.054655120065002005258 0.28092337061614247595 -0.058221857034096199945 0.087553299809356416317 0.1364368487796732976 0.0077039361414975530279 0.13112574411031130417 0.28573094361723261336 0.21107174670033451713 -0.068126203811189806059 0.27254611574722764633 0.43618008162416727069 0.31967766353458770823 -0.34554464921879146644 -0.13666933590383506525 -0.12313170956538055378 0.23527738414125495825;-0.26796686956851739625 0.36903421513691686551 0.32467919206126621967 0.49020819005527344059 -0.029932113296204976988 -0.48010672914034641101 -0.28775770441414111334 -0.23317125655398038275 -0.24950028842405344576 0.057748543697982053502 0.0046869191030500046216 0.31049469092221243516 -0.052429755271506318925 0.17407212348895595433 -0.07711367936667573586 0.082818831855531765962 -0.33233880145460675815 -0.19021405635627663955 -0.50222080387306433646 0.0510099246488870256 0.04814440108418457237 -0.066530812764625357758 0.29513168315284471488 0.24951312521181026605 -0.14881038964289344806 0.31870943842743704177 -0.21852130128446126123 0.34829493284356422 -0.1593673585298011619 -0.31088799101702729866 -0.39277515245489813545 0.014398581221755782714 -0.18084062190690078364 -0.21562517390727831135 0.092579174177577785998 -0.16509428853858776343 -0.34564521411231030612 -0.21551838953417593037 0.14277084990076252535 0.028517879556556307435;-0.34283549854579908889 0.2035271232475178993 -0.34249835040848652934 -0.1615594162733192396 0.38443916102096697962 0.22849207608162683258 0.1209131983903769525 -0.25391163726479437646 0.30874591425872682793 -0.30216100868662815193 0.066184189731375658861 0.26171688312447738411 -0.054084910059105664737 -0.1930897137735463065 0.090964886527851410158 -0.059005325134800806763 -0.084379468304661559008 0.0038792641050194522252 0.38669631644650709346 -0.087008791637302768107 0.13080286676736030405 0.3552657699986029316 -0.50013418885935745362 -0.15952419467435507983 0.094018187695263225057 -0.038860772121786797684 0.40573668966333931163 -0.23842162260891969217 -0.23462320969092750889 0.063676210946032860138 0.30571507459635588466 0.25748901950843383624 -0.053108053732831117522 0.012317697591921143024 -0.25880793342523727985 -0.056631952986002806472 -0.31200115033634345796 -0.30314771668052287179 0.12965681537473844331 -0.17933615260147323101;0.22468673366756872212 0.21534102572840529977 0.056864467140097782472 0.29175433063771522013 0.14088195958948154796 0.13910892998661611442 -0.32443696862041521145 0.18190322494047994617 -0.19465198306042788556 0.044570554447989990665 -0.024776974895215748973 -0.044993022514552998004 0.23048889730756333405 0.3113188549955479556 0.21111427197248178178 0.13755038612500675166 -0.098341338497472133295 0.11770788155175739009 0.37485790489326914487 -0.0096412838154898306692 -0.03362479141840251512 -0.15994790726657370783 -0.048333550667734696826 -0.47189739546332609699 -0.040091919370970556524 -0.24668403222537832464 -0.20883539272318007995 0.17163967270510055441 -0.38306645036609510147 -0.13771805152652971671 -0.035382718541207849872 -0.3345934098593770778 -0.30608852803182157176 0.31710838441821631584 -0.51520418367086595612 -0.07295756126754768256 -0.26484466875395296093 -0.30793582473605274341 -0.039001871664977413867 0.1060322210265294135;0.30291311542087312469 -0.014416151585607002439 -0.17650189886515052495 0.15898485932410719168 -0.15504316477950716435 -0.38161268757510430349 -0.24892189079246324068 0.40139593188517358469 -0.21304034143531241918 0.18683220693959753933 -0.15134472177290850259 -0.053585063067701277362 -0.013996496835050532825 0.12092466289225592413 -0.1803106700940321494 -0.054680944991738603123 -0.0047443215308806303832 0.15336957259765382489 0.18541364881343735949 -0.0048815063719277228607 0.059493808703212025524 -0.13068371884600138433 -0.1718947308105426286 0.030210231895410787767 0.054806998419257957345 0.081292831223193390278 0.15615207255800325759 -0.11436605418129829059 -0.14618601273624587389 0.2425685524715233965 -0.092654946974665780557 0.10743132806604571705 -0.030307501225041357656 -0.0077834119814090109782 -0.11000711877859011001 0.13387077700866642505 0.29542698501672093325 0.35506631357336931876 -0.17818362784474925387 0.099376693230870991047;-0.16227143315099934462 0.17337509499079223341 -0.070391189568004289279 -0.34973943520634093174 -0.25206178207630441923 -0.28246163543263741458 -0.41628345969391872261 -0.024011959601922993474 0.29627497251518447596 -0.23676629096505252825 -0.093074094056939310482 0.23984690055397181463 -0.014287495697051406929 0.031487708467981524729 0.062267483492471520368 0.31518909284017188055 0.14331711798515994749 0.0074421378196185437523 -0.28316288034899605996 -0.22790891377363248216 0.018814145890020322199 0.10818097004055042543 -0.2000424532678166667 -0.012872936035901618237 0.28839017950876116858 0.041219673910660739602 0.17469327821182664695 0.18198905440481594198 -0.0013039945481356422872 -0.38241672046609914704 -0.15385961368774153657 -0.42409761533337919648 0.37951855686339636131 0.33349548123783684384 0.046852262934372099212 -0.11128753847559198775 0.36575775142757199765 -0.40145004649269594443 -0.22529173481585532124 0.38702659708945180705;-0.3552850065639041599 0.12909559589689650894 -0.39518098502267057226 0.10866684255000208514 0.10845551837184913557 -0.16206154005018491571 0.24057897078904302846 -0.36424437019813710181 0.23402161735614654403 -0.34714906637347070495 -0.22342140080017974801 -0.075544256688085453799 0.12549406417405012393 -0.092735367362551043846 -0.16718404085890503641 0.13788777994409776029 -0.45352303108945646315 0.42579966863408558186 0.24739159552706624368 -0.020936883384260935453 -0.025586013749087178903 0.29702643417930663094 -0.42011467247505729361 -0.30757009327572315538 -0.10738315249191304757 -0.045915774386444403732 0.042263847919841106282 -0.069141107796072617808 -0.45279566585964553527 -0.23823124919071125838 -0.28511686412885800523 -0.27470329355329048404 -0.10471123423566576494 0.20647167971178206902 -0.16017560167444999664 -0.37177586185326710888 0.25092987268903443887 0.16525896493368491535 0.017157257566418455952 -0.028159107532301237004;-0.061462476198334267674 0.02224196145150053941 -0.10908697311481356518 -0.15446544619014460076 -0.13208983063435930649 0.030248825867576649429 -0.36247854433799714391 -0.10967099268441880822 0.29896892384578171997 -0.31960080046696870415 0.08007980977662716715 0.35192938300141463071 -0.077180578610725289468 -0.25853210540528892558 -0.12749895590759927066 -0.22403221550123536554 0.20240192014191091263 0.46399512219564570392 0.071043727399386621957 -0.041870424781018052152 0.0021322758681889008615 0.19044317316104597548 0.28491522404259450596 -0.35951402478294253173 -0.053277986353591967605 -0.48892181192059341877 -0.23937781842072480831 -0.20975178241549971569 0.064198880277151801343 0.34406685378018719845 -0.30381747985307516746 -0.31428130186427560844 -0.35731455852358368075 0.24363244728569335984 0.18562792309836251281 -0.027654958045778849779 0.13965345747324847681 -0.033038034411580298466 -0.21681440785803912652 -0.07790276733533253728;0.40971767189862123848 0.2071700352645696741 0.40879509191608032204 -0.042979045193488996102 -0.0043951908322969477153 -0.40870744431688299514 0.065248611579667659122 -0.37875829546804407055 -0.18769820080378971094 0.12814613164232602216 -0.20427156791275721814 -0.018575629982805715035 -0.25696072445617856861 0.19476245688008705925 0.075384427654341987224 0.095005144413092809663 0.35389474476417570603 -0.29522091144273066021 -0.0014845992162979082616 0.20248409131525976767 0.049333177307835734959 0.1931910019830701819 0.078383449624425380331 -0.10480680011831480791 0.18961336607227707862 -0.0855798809363628038 -0.037811160714368477476 -0.17485567209746266659 -0.071963787001204371219 0.38460139505249257841 0.29735987499447813498 -0.3026406772652523447 0.16383495797069724809 0.31052363142845373911 -0.074191373058654461192 -0.0032855787824056905191 -0.0539694054385991967 0.030618095620520292821 -0.22892565138867812524 -0.25189197756340453438;0.079207118031721798768 -0.31079860189977281948 -0.4444663851193778048 0.0075000397925626509366 -0.17298916490522786571 0.48671521424152197621 0.16784841552843240975 0.47749061097985895374 0.05003665043914156535 -0.30407969928680522731 -0.29833320933334600555 0.10653680657102138074 -0.18444854808949845415 0.2385140304847118975 0.17726426109944254383 -0.22622441618116762019 0.098423142337360741694 -0.14611618545972548944 -0.01227198098335559491 -0.10211911615373181483 -0.15891505411145784299 -0.14601936324065317718 -0.46420783479221455758 -0.098371507046792941442 0.21431822016306475986 0.14074306474655812194 -0.021513513769053922708 0.00077068122448557970471 -0.045142490845448489389 0.17227565611371339904 0.1430215882440409314 0.17204202603713050768 -0.081854252316625880637 0.083105894292881496432 0.092059561062552294763 0.28504539875544543381 -0.29524405883153442831 0.26985836694728065899 0.033165079232375882512 0.30835191903216507825;-0.017804258185136808551 -0.2610512967198088119 -0.11378381950361646235 -0.27131249415580954709 0.082954505071545336925 -0.10607418024664060086 0.31526268932773449105 0.047702359501656868557 0.030919218073393713031 -0.41477624340005997405 0.11735546842319018179 0.026396132177659861751 0.31903194136379348089 0.23752586586557483672 0.1672063748583761944 0.21082272935879872722 -0.42224279597596631186 -0.0039945689198250403443 0.45331882253424993223 -0.10125853777173658699 -0.038117208495766004284 0.25941034802776785639 0.071597096297346188298 -0.43764006539486860481 0.22361556382323882763 -0.24486197986071236987 0.22510276968258238761 0.27852289039547306615 -0.21025433205294172256 0.23025751121916257502 0.44884467149395224084 -0.19830563364793998837 0.14366415537710430783 -0.2096900993373422839 0.34178055221902226002 -0.032002523508542282671 -0.038362599101112587752 -0.049365335386390978012 -0.49521076564797816832 -0.078793029371949568906;0.0087251807540036016575 0.21600452198279576632 -0.097232448793918568875 0.1756913410239972495 0.057946378986371949171 0.41228369669095044081 -0.36701166460261941404 -0.27628160715395616576 -0.056257191670973268061 -0.17715964752111118541 -0.22358807192402121999 0.17846389353555108803 -0.14758100778818655785 0.31534983901560420527 -0.24055547409433464257 -0.060191690818865377366 0.10977254170610267758 -0.1149025561496349046 0.2070146313493010648 0.070228202674170001063 0.26141658782879945155 -0.053796117098936648004 -0.043628236951853152648 -0.31179696411683388568 -0.061631196685976080696 0.33266933990065389315 0.18900070973533775187 -0.40206423222858783673 -0.10054110962181925237 0.24383810174783382418 0.44079032667516382382 -0.015732680266417452958 0.26168606418578449491 -0.16293632537423496931 -0.069847790166436440895 0.016825316246919169022 0.3943008501027160384 -0.26147862310823366538 -0.018927899878208125778 -0.23594386243698520222;-0.2927885725108538284 -0.095689173013502021314 -0.2170945549817621667 -0.050404499059607220379 -0.28922278469750267726 -0.18677078448092143681 0.35396837303672606945 -0.057244612665898267356 0.13070926336564475667 0.17673471273491511702 -0.22506166156794643607 -0.24850850827682532951 0.020993022357972842412 0.13089710690358219436 0.39584288791282540299 -0.11617828597898915977 -0.0089684906205549971142 0.1726270439324909256 -0.36951742559036770963 -0.54377458332900130422 0.14306227091689752151 -0.17364066635139027706 0.0033289017318876433678 -0.25400916183303934304 0.076697612063869213817 -0.13068030011863962514 0.11424339627238297434 0.42230705108114913182 -0.073224305071353093521 -0.23737625316654120677 -0.30455672457994475977 -0.10131361359272150757 0.11967003785969512752 -0.21831661073783203975 -0.16721222105428512616 0.17952500807048557552 -0.28897001133444433219 0.1904170744623820688 0.39439863433108324209 0.10343691464807532043;-0.012240354473494577045 0.31810403429357952954 0.14020372069437764262 0.29311587477284373193 0.11628441506818239237 0.22884805042904893257 0.28707091106189991381 -0.048355075586383841624 0.037567524066309067321 -0.035504409460469461834 0.14781456167567658122 0.34685192621072902242 0.077388078944233121281 0.43071097628856280792 -0.23499523583010439864 -0.28113304208703282505 0.014060537250279902394 0.26487458969955368637 -0.0081558740746615638467 -0.29412571611338206301 0.20675902247542599088 -0.43965639814421253462 0.39915065009402811436 -0.27598764880381854159 -0.11539933132189451881 -0.37355900394825408695 0.32605893662013557543 0.26357589344606491277 0.1790013784962386223 -0.24991273372007649645 -0.26680834394235641849 0.24879339371895417554 0.038183941571017315786 -0.29764298187499127479 0.11405618752260671123 -0.012257419185530603334 0.27370868317851754226 0.012159078247784468538 -0.23382750554088790884 -0.13698068511926025925;0.05421306974062372469 0.19206566129279756261 -0.008299440292487376275 0.33581263726731280794 0.24017236573772587915 0.35837174221850509603 0.18199171834507885115 -0.076972828404743731667 0.28191777444762522453 -0.3157795041827954341 -0.020991561384267623525 -0.20824475390525365448 -0.27387659259436730741 0.24403311018259546405 0.10721528422515627654 0.31608380656420859145 0.11413401895941234498 0.031804562207651099204 0.097762246989062301372 0.14965863023642336782 0.050018830786716435288 -0.3316117557391345394 0.060740332278472433658 -0.39518473375806489889 0.24335181015167287044 -0.17295576394270878451 0.27661743015143408497 -0.26818929265900071091 -0.4700088985793430818 -0.1730519450982545282 0.31990770438856669378 -0.29730166059454954386 -0.33190569861912738725 -0.079433800594849834908 -0.26878745702389794658 0.33250243459052697403 0.11209874778409194274 0.10006326094507669855 -0.092391481318876686468 0.19030879941360639984;-0.3559688202335367091 0.21269148260095274705 -0.04477527274154872311 0.15702076733002306996 0.23004321743686168 -0.018335943846902322957 -0.22317562486155620438 0.096158349804983361819 0.21084896883089260244 -0.43190654688966434449 0.205622594257927227 -0.27926867457808185469 -0.22006650746128664231 0.2063417166167564043 -0.14650604434171515811 0.2341427002506823174 0.25959560960965011311 0.17961775034307297938 -0.10868056083342572671 -0.18402444446295038172 -0.27632048409815646028 0.34633930327234258018 -0.21731917863923574941 0.14487925818065999772 -0.022796574843300956847 -0.053004237337743363712 -0.29702722238460516069 -0.2814353762723172947 0.23656603135833428886 0.086731086523900879914 0.2231860336795896127 -0.45052704071129018315 0.036667088327130871461 0.39250637176237329617 -0.42128324916435427872 -0.19201318044211571068 0.48666696478031001849 -0.14565001355813939066 -0.052085715058552715939 0.098238454013891557404;-0.2383819872991399802 -0.082603447132357663008 0.0098286399559637874224 -0.023857350510824822803 0.24172291421807257095 -0.42954623307404626864 0.3970443286401873495 -0.0568407183433772209 0.27615112163980848337 0.15572004388632237903 -0.18819906527610200109 -0.1184124344498976994 -0.053784660303972942064 0.16034099810041871348 0.13363748761494001482 -0.23417619012821527802 -0.028097230184074374615 -0.42307589153777769297 -0.26976550137980870314 0.028991976921837799702 -0.27651936063078891292 0.25547398532064680143 -0.032511411381472211934 0.44247833198995528692 -0.024538404332074281039 0.18006940889661285365 -0.17900067413021902851 0.17341694629175780085 0.22006953515651686559 0.30451515970012615897 0.36023078623645132801 -0.33831147475265893609 0.3533520162897366701 0.35297176449017386712 0.20707332989247598243 -0.33473869309529669103 -0.25848531191039830768 -0.14715477641747035098 0.15496764458028169931 0.24982530255183524326;-0.29079649691937026201 0.23267477767933017474 0.10564299031784402105 0.37527893279932977855 0.052986353607596375914 -0.3549651934205415027 0.1768730143433576707 -0.38297102521573334055 -0.32112554785413999214 0.29231445779731862755 0.11869339320978612717 0.27927689254360349436 0.15453619385744041259 -0.30208997729464071025 0.39137021275433442336 0.36916078145916675357 0.098503228321402319656 0.2595856314938316256 -0.091960479709078099542 -0.10049414274215731635 0.02601052790210585039 -0.17213615324287570574 0.3730392272147827204 -0.25056574209657189733 -0.11217574810766361981 0.070086981815231846893 0.2900631130021681936 0.061820703572528432068 -0.12870438903396236308 -0.38966512419628296371 -0.22774571955422495684 0.14475787201915302216 -0.25994060054338946619 0.088238879405839965031 -0.068727008189618576939 0.36330441116367950816 -0.23031030693674375831 -0.14009870542959013129 0.28648068228361733834 -0.16868946640101223355;0.30165796307933706588 -0.24737341837405940614 0.11631573489812291333 0.26516362144434996173 -0.056169484784437416491 0.38347148150360071961 -0.093897206838574484578 0.26420235734437097497 0.41553765833329731061 0.22295705073273316965 -0.22220456996502888081 -0.20288440377356617428 -0.29096256186901447993 -0.093692004498020009517 -0.26115576252713429417 -0.361691519626652358 0.12323264090037144847 0.4273453886322688966 0.12545069389347524025 0.24552010834407062001 -0.11959652699343113758 0.16254478857396956193 0.35706210507237473584 0.26174477406059576401 -0.18670592047498749122 0.064264587915063828283 0.090416400770821567234 -0.025004460594658124012 -0.36502892072302856041 -0.13792473384801753888 0.37004806455860794756 0.076614541547086495443 0.047814440645379978345 0.39961074197467755242 0.081581704789981529524 -0.15152272528286903075 -0.043016466955912560644 -0.10156772951035759889 0.25112376546715237113 0.22317849934694009018;-0.18366203309025991297 -0.10751519824072375275 0.051902507784155928194 -0.083538206637101458663 0.11687722908186579107 -0.091877989837419196673 0.1041256687603435982 0.61365408163688339727 0.017460315599966223093 -0.19137874345309452417 0.39205011407341788798 -0.26833817188381636765 -0.091745126143944255581 0.22686942667274792584 -0.18158024490729243738 0.065621857747483414158 -0.038854654204015584562 0.039687708072478941612 0.50873030402363961233 0.29699192435322041561 0.078636483506758406148 -0.11681340307904752862 -0.50481240218789869001 -0.28455833286609610866 -0.24123740769994939104 -0.10448012775293608057 -0.38102717705342065146 0.34926769466014767618 -0.099116857215943765524 -0.364273865439443012 -0.22371415055554305651 0.18222114917915682719 -0.028025046572111092513 0.18881677099620919336 0.012952729256080876621 0.20460837640690060502 0.31529744461540726297 0.072188242369859365044 -0.30258842846922717751 0.20463950848409007133;-0.084552137751269768051 0.36310435037607330377 -0.14165369563143573317 -0.33517220984109308279 0.27267390767743143742 -0.45238641003013441155 -0.27308208425267371799 -0.20171927040769457862 0.1920743397548287934 0.38637128567136902468 -0.30566944515053745546 -0.28230868798853198109 -0.1306039754929917418 -0.19853484194096307491 0.06220868755313947035 0.0073254422260827112973 0.067610122370948655401 -0.39154435960334060818 -0.25262335184957213086 0.32108413821656350828 -0.20187048178320723957 0.10085740696887185441 0.089368470322680845785 0.26580407698667379846 0.12834116284274574293 -0.31819027275187805603 0.33196328502482819189 0.22256360636476243964 0.31205637023587656786 -0.12239092790199408711 0.070102937116910526982 -0.13524557432714229277 -0.25284714126263763134 -0.26399861112440153876 -0.11258555046073787098 -0.19778914487212154172 -0.06241402143919604073 -0.16344374155410365534 -0.15438124445505826965 0.18526172142729790959;0.30330650877400988641 -0.3635296878995111225 0.16874340963070863508 -0.35872990515314828741 -0.33886985326343954661 -0.078865169705938625855 -0.11720630944269777585 -0.13064529774578964583 -0.22220738214032340063 -0.11742166830538691702 -0.086833947549519896469 -0.3809851315315977982 -0.27515509868781767855 -0.15370284659930730231 -0.00474706854614258527 -0.12165334718454991203 -0.39234711869845700916 -0.31295436163136197694 -0.18613509213781612162 -0.036031935153531736982 -0.1998489932273594949 0.14596594500889031876 -0.28823694662823934332 -0.17461664951977040605 0.26532892662478391177 0.41248996801903964338 0.013908912006101328482 0.29843589299815043159 0.28239858162318043355 -0.165581669825677541 0.057407895228275739041 -0.26825902153107289427 0.30985734781809887162 0.14982897001012890348 -0.096503234021861644676 0.20043485615667833155 0.13565236037099931421 -0.27417008311922508312 -0.39307317983112788351 -0.032599589648850513246;-0.037532275917677021537 0.14816422079675206636 0.0932350368198495566 0.026900037116946110688 -0.1090686968864447437 -0.26016337022349084185 0.27382196279236736824 -0.26539022954906188456 -0.27012032998996082789 0.14058388887815068125 -0.21082084096550693375 -0.36033004653509781434 -0.38986393065040614303 -0.24690885976482493391 0.012200726917535034341 -0.22248861335093633729 0.34311974671539968718 0.18954301036544476955 -0.47354549415755858854 0.041012524270372954782 -0.066372210220703192762 -0.049805443405342174346 -0.1724854295804811033 0.11671942645362520796 0.34886793198513638137 -0.11739218165408268901 -0.10594108136191464353 -0.16501191513466106908 -0.23378642818558781347 0.024132743981582223392 0.10847165959926813317 0.027180648830509159669 -0.26795005788918097034 -0.47133092805111137524 0.35242681632226352528 -0.21172852571176908887 0.24108097196078737134 0.46860678968887958806 -0.12522583986550078761 0.18006922197758662429;0.15319476500890438775 0.26850018392344082718 -0.23900858855987322515 -0.1027933929909861932 0.011580396812840553292 -0.068207924408778722314 0.31000973943724219328 0.29552441719894112504 -0.39293474869293398832 -0.11678519955827622312 0.2103173089093987036 -0.17007063882130102339 -0.14280968904881774506 0.18558208203632994837 -0.090595242092817537816 0.22823089719146255616 -0.11082543290217394816 0.095780199344540670192 0.11336842031259793118 -0.29502278395560194157 0.12425552278207434298 0.23830514064947719288 -0.32692950073999471616 -0.32039037101548673014 0.29026586542386539902 0.43881684140970378394 0.22345599799922202799 0.047207434557160414534 0.030075171722506819499 -0.37672809905099380323 0.39110424672922516898 0.37696903349152333096 0.29899387636672769553 0.29917206837604382041 -0.056378153621602838941 0.34530042654292897319 0.27805851724395463931 0.11510633258699937143 -0.32942392272840415046 -0.067724592636385749778];

% Layer 3
b3 = [-0.21175857250146085109;0.24198035393492803302;-0.85836183903766960501;-0.74407174808856746395;-0.17380755457489857618;0.040043333115435932046;-0.55574099388481668083;-0.43912537689232700178;0.82630947999600123932;0.1100139299364919776;-0.82444442047055632727;0.84421894563823329793;0.94510711876079855909;-0.20002757229214779278;0.26210450999581946796;0.28889398435229557416;0.38692105876622545635;-0.59278858775413156845;0.43443248080932128641;0.8416385703980547861;-0.091653303483454684475;-0.41137858490304407555;-0.32079412360288744877;-0.59532046837698560093];
LW3_2 = [-0.030038695166648220203 -0.34549080853410302216 0.0016527646036217542858 -0.33641440354602375473 -0.56980279584690018968 -0.99247260785644975112 0.63094610810196949391 0.42477715051718462069 -0.11942259730854086486 0.56062350052738607609 0.27561141480294731876 0.46411009536279701493 0.087252707654032604645 -0.48530695171198606763 0.84176001959576252087 0.33094164871433162656 0.77878260714517821839 0.12553827840472311927 -0.016511374306602832202 -0.40923230026790868852 -0.41631739245148430273 0.19955777893429202385 0.33980334124841238275 -0.37272584909312655999 -0.30376434276610414509 0.77399581384528626238 0.72239208798895115926 -0.33887033955273976327 -0.27976796239815499012 0.49034412253545367477 0.10433022484498503946 0.21479516819719410292 0.1841865917240732009 1.012620469789560218 -1.0525306679206418714 -0.27771690042388352815 -0.086331023172120033293 0.54801482882139429531 0.52287293201530071762 0.097686136157030839522;0.81263637497896723527 0.53689840040888225925 -0.39926908723742515761 -0.028640700136817739269 0.71565505619198099829 -0.073627726742271581983 0.75766158693371654653 0.80507709909819857863 -0.012217837693610957353 0.12019016244917875291 -0.740891268104880929 -0.75110087237195022336 0.31046726109135736049 -0.053389467135800693087 0.094521247848602329977 0.66241886733740307225 0.85890158790144144341 -0.87355591525297704436 0.11921501731607021812 0.40202179657298053872 -0.55069586023547345555 0.51081254505241424635 -0.41269714882449104465 -0.70804391089172391549 0.23147700518814676163 -0.067085943050114935082 -0.21812976285251525765 -0.23035328862371914904 0.028028204109038407782 0.31230527370144123278 -0.48208531142847010909 -0.53620550389425436499 -0.7327771556025084454 -0.29894849799152256598 0.78332861725706515177 0.63004567664466970545 -0.12236351562874793475 -0.090289340190172928668 0.92012474764707641306 0.53623224522778456524;0.78402669865682583783 -0.46495202156683496098 -0.89277525800498425124 0.6378273617910601434 -0.57201104281666370621 -0.6613739385178999397 -0.44289204210414362395 0.92974006559321042964 -0.94597398561596368616 0.97943340774916975988 0.28167130778544569036 -0.97446669124846796439 -0.96381544576765221244 0.40282549462824690512 -0.65572469037339342623 0.61940844393595584361 -0.26238249221954412782 0.26703239809326290155 0.56833072449982002805 -0.73003550252890314631 -0.70047430211797490074 -0.34200261550179955616 0.81906601469023354589 -0.046722505556289185835 0.75769383726902161946 0.43512219548135983027 -0.37695666253641785248 -0.65337479286142374768 -0.24867119409104651573 0.80691998549751853265 -0.30115290446412540382 0.67172511698668702085 -0.10980438057149483067 0.30483038544545509874 -0.98786112661047842387 -0.76696181258247975165 -0.54048053065732948319 0.40854109379687153503 -0.10922210507980242844 -0.74964993446176875214;-0.64508715650286518883 0.87062901218688071303 0.648874866653691873 0.47348523375826095938 -0.54092498067555672137 -0.1477605939076692132 -0.73942941577633514161 -0.10746795624662765223 -0.79675703687450138979 0.14461928350760233641 -0.72560821720277768332 -0.27573292327725124062 -0.83092329069228076932 -0.86414103349131909937 0.32359759840132096276 0.15274251193010041083 -0.45119833878175258368 0.22489421640718343376 0.80987219879195671002 0.19521104078165230078 -0.73440181588821218384 -0.87704668685819509033 -0.99138373782978339577 0.75350757143779023561 -0.5382888405338579485 -0.93461186065172263682 -0.12694964875598419018 0.069916548888187504684 0.69106751776411601274 -0.30284934955128878231 0.66629185588347228375 -0.3977315684836916776 0.34373671182240034261 -0.027071644450607102589 -0.92901652396459699634 0.63600482650636547266 -0.75114018556179718011 -0.56098452871664972186 -0.83626836571883911287 0.58982027214822174699;-0.16067420884531144476 0.51495926342302478229 0.071397097061074790703 -0.46512952829725168202 0.41067553461278349936 -0.69897300487842928263 -0.42700658597108320791 0.55263656398965699257 0.69744058092692351458 0.56388498190218627748 0.19514615533203266695 -0.92264241012263303876 -0.33588652904485821749 0.23240490811571631879 0.45183440904045052422 0.25812800027579624329 0.87595234944396438426 -0.097565458301015831055 0.40471815969052438167 -0.85685300010089893163 -0.59346549391750269553 0.96574626445028122212 0.2221132663560343723 0.071207476273683206758 0.17187252263026381316 0.14005272373890848003 0.82722105371678344987 -0.94435687511045274256 -0.70651180853556139194 -0.7744442075685771254 0.79586402676727341365 0.57558867964950732876 0.42814485726186884973 0.31790559908137872025 0.50271614466513969699 -0.5457353472043821041 -0.63900295038436660811 -0.74588647032392874081 0.40967705175402235884 -0.70706893557943217843;-0.027529905186960423186 0.80254349586004380956 0.70670667594297365 -0.90415732548009108971 -0.77062698903027082586 -0.34676286008471685074 -0.79926374319844617489 -0.50205159197670090609 0.42657673772954546321 0.34949403699986897331 -0.78558525493155140218 -0.30633598284250462829 0.68566873386367066523 1.0101626941914794156 -0.41714440995447410465 -0.59794167240332596336 0.16823569127835555359 0.3583548665584535553 -0.50061333814776320938 -0.41851002642670515064 -0.49051466933166670836 -0.49160055904502530932 0.57944478802347454405 0.36789381439550145059 0.88262424044674969714 0.044713110447181077245 0.73478087188945595543 0.10755212887484250084 -0.1120564875808644778 -0.03479319690639411794 0.14556193583784629575 -0.00920796619314493206 -0.47504562595706018024 0.5763919325089191803 0.7392012985491117627 -0.50194685139090211567 0.1393954031186002418 0.15320331333200390422 -0.5057605503530178126 -0.52436324427333835807;0.26530061120292969257 -0.079667669007690358751 -0.41087969815485037017 0.71714424260052445081 0.62290403069019639748 -0.15582821568949178914 0.93119651937818737064 -0.38286332789128363352 -0.19779821132205216427 0.61405640272059291984 -0.19152257225969021581 0.7031999896144760509 0.57755539790635868069 0.48398710466413280562 -0.52201336320499613919 0.045948496367167225574 -0.60869656301721764002 -0.49572828642850996772 -0.28858654447364207041 -0.54785258634303324321 0.8696952396100020577 -0.37909212623795796038 -0.87064744965899554252 0.54215592567750559017 0.12300556645674290412 -0.027574653216908728143 0.52411754726873283072 0.3856924602258983148 0.58635776443702758431 -0.33836557875606204648 -0.20549254176024780993 0.72368703306680914888 -0.50111910182145869008 0.51627826702059409492 -0.42609147131325642022 -0.90553828130707647581 -0.75080519365768128015 -0.84153845385113790201 0.084043910519828068928 0.30423805952443166989;-0.47425222142446749052 -0.53727917359232557626 0.42791632565681603229 -0.83412587729073028875 0.55342243641102428775 -0.30337376851944714007 -0.80210383025739229179 0.17931086320547004465 0.022183284409374788571 0.56747680312824444471 -0.19837926620356971519 -0.79234867475157610972 -0.73500382708954681288 0.41678127377069923432 0.29315426924658571917 0.09763464689866442614 -0.23791087014691633672 0.50342708238996558556 -0.73830012866243410752 0.46079124837372903434 -0.51376565055431866469 -0.62213437368377166869 -0.64738922879174598535 -0.17946898186475107595 -0.82100327880783108281 0.14920257498082845071 0.38195856553606039041 0.24777285173459259737 0.57704224415187665986 -0.41847395617934346479 0.64070469200403401544 0.44269542697931113517 -0.32552016934154809347 -0.3750956497047402971 0.59737132098307055283 0.11602993307149808699 0.39157025630244435277 -0.2456808639169216768 -0.24194961305263829043 -0.87816173461786362076;0.65491086751829497015 0.91115100653275371556 0.46201204505234710895 -0.19905671800162341722 0.48072175123524196749 0.27850359143999886546 -0.13112020021700482308 0.73224353308577905253 -0.0098123072600967090745 -0.33901773943493773711 -0.53030081147089236371 0.062717398184707284781 0.52825844521740550341 0.89820761831269535502 -0.70315968149232288553 0.43341471345581628061 -0.24887792346352760608 -0.40950978679366989432 -0.3847393382405926987 0.31687529436871170185 -0.48669461878073011496 0.35550511641177606759 0.11693527968928144056 -0.76403640732193878193 0.84555059569511670237 -0.17492192169701284432 -0.64796208718790315739 0.96155170741161910541 0.92207924600033419615 -0.17411657137925898309 -0.26866015184350117151 0.070737152530452110377 0.60735400717266041504 -0.2814898848848784163 0.09828982246249985677 -0.68561738690627582749 0.32468112594860121245 0.94048242772103107789 0.95466203106089930763 -0.63767113951894727197;0.54531366398829528297 0.50659248579587068395 -0.51817029806747283427 0.066660885969035785226 0.55556757522188482401 -0.0021556402580378921686 0.86805923096267778583 0.13321016420160264326 0.0020100358140182567404 -0.71171578849805727796 -0.18696009432716759191 -0.33254899605479043556 0.16686487476055555934 0.71370930086617911936 0.64473021715369360773 0.91433491871566474618 0.65111354496791351565 0.901025529650595014 -0.41475728816093176965 -0.04843204253326473252 0.60730657595865500387 -0.33111390135091517406 0.78316676117260841661 -0.56204300518783578688 -0.43545272139313379034 0.31004476090281235523 -0.018722057461488625374 -0.064238664271089138125 -0.81488775179669004078 0.52933164315682001977 1.0378079206080306207 0.0073118700359476838935 0.34169257004940950528 0.068451962486630282823 0.038793474367734101516 0.24640694065446092087 0.23193949181777162583 -0.082174008296161685228 0.45482148467435701278 0.43348645383320028035;-0.8810604417156364665 -0.86668891963014915714 0.25871388714534743203 -0.4046308361215224525 0.94859901298178539442 -0.23162460840417811725 0.66760251169108830727 -0.22463095790543699537 -0.73374995169894019487 0.92203320400949850821 -0.059722930269802146364 0.22668809410951343275 -0.93514585878010469955 -0.97274275378185881547 0.94604245452667057314 -0.10730908323047642916 0.16309992433160819258 -0.53975324452142037224 0.63614526322927755775 -0.14433690902099460818 0.65286160100605694634 -0.75063311994921155801 0.91544395496258046396 0.25949334105600552203 -0.86733148349847288827 -0.89647697838902995482 0.80811983327729641768 -0.55116773476308766888 0.19318462182664153381 0.65695711301687897965 -0.11060736752952692041 0.28210538155799064208 -0.2799736342686052204 0.1690789638524730909 -0.25860346948237594722 0.14306595470494573585 -0.25710782007688187667 0.4487288246425016891 -0.6003482995333322414 -0.19121589440939176785;-0.53088679977413200106 -0.87616843452275849913 0.75793841566379915875 0.82641155541426214448 0.32406345173238237933 -1.0279520795668766198 0.39891359988145069781 -0.49947824015630709615 0.51961176570116562878 0.65960887365964460116 0.47177461034421414032 0.23271059337666855082 0.089775108187899022028 0.69535250902986056598 0.27310041145571722909 0.71839473899199790541 0.55500532559919246722 0.569273827949088429 0.62199900933906560052 -0.51457664168380046199 0.01603959184439872343 0.71171210994788425275 -0.86645306613500683302 -0.7201133607559970784 0.77392760606295174508 0.050282536475408520782 0.61503777717521823654 -0.032369955406240581708 0.73082299450579157885 -0.34204293217956260875 -0.56843095377384145195 -0.56058329862567035651 -0.10559253547849543897 0.072947194657207975466 -0.31327998687732039329 -0.9603469132347348669 -0.61088704517748848577 0.050751838939938662132 -0.40503632481428919476 -0.34492851342684316407;0.32018993456564326383 0.11888991525551266537 -0.71357740825983739796 0.40043133074193104637 -0.47185410316220133264 0.62356605787522878526 -0.62812269796523145793 -0.054877748776516327434 -0.59608728736899896372 0.89129619583802732752 -0.81866093084748836617 1.0124532207442780152 -0.33545703892805139867 0.051970936814485307886 -0.27605151408083017373 -0.47376701547829247474 0.28066704671510095404 0.51063697211166025891 -0.28854629282081589725 -0.15489792756190640111 0.16979208698239353637 -0.60584859904932608643 0.3582728589117322171 -0.22920508334345243706 0.54632525288331190705 -0.47335971294733447667 0.23818129690957040578 -0.37160561480992509997 -0.20889240881248746784 -0.25548844996791003625 -0.74655860489557857029 0.58600050725641483762 -1.0316971046424252556 0.6744136859429915587 -0.62043571577593603639 0.30106521074053566034 0.22624161384827326526 -0.70613189234789441873 0.78899480886582740169 0.1632079168141711556;0.60549900097326214699 -0.94029653600767859611 0.65813491434171655925 -0.51905588833544724636 -0.56455223870671356057 0.32737433492647766142 -0.42028985238562177607 0.077269718603934861578 1.0257547672053264343 -0.40473820626885786966 0.58180202644425305092 0.097181786088517310707 -0.92014811280167452257 -0.97517692863158889072 0.10259417217401942124 -0.23592734563459011321 -0.95288035081686806027 0.81268757807549296679 0.29599893324859294363 -0.054627156104853497043 0.95100849788533992069 -0.55343674986851476572 -0.99546725033024763274 -0.12691083751419590664 0.17019676345037787479 -0.50208408704216156426 0.266497828178655638 -0.67656529667164355679 0.70837016059692381464 -0.90742365982090900101 -0.23612244473103280451 0.43187609965939915968 -0.58908968291274288465 -0.6716914665693566322 0.89738848570169915675 -0.74574278551139583371 0.46144099270237431965 -0.35943788658234809841 0.54044006086904583519 0.64648130248594803948;-0.64184263064692315126 0.10892855574566522037 -0.59273023822698356344 0.25197735421601502592 0.91769241708335302921 0.04338249300198392111 -0.69582737341603728698 0.45592281732429651431 -0.79552517187269877752 -0.42563814936238048015 0.046584168174784577887 -1.0069928371945402468 0.4827551535503394331 -0.59393768032199700801 -0.79165583415787299515 0.73494229228601115622 -0.64340032365188049024 0.7356400381478349626 0.74169619761805793967 -0.029473916317901048545 0.28757234058246633479 -0.24704272835290458366 -0.66227261933328418486 -0.33023676042553556931 0.12353876921279240142 -0.67316126936972009442 -0.42690885087158020328 -0.49213151875458133189 -0.46679266410869990622 -0.99350433715777053401 0.33189488352851520547 0.72251641036735148038 0.90385861876542827886 -0.79452769851625515418 0.87978960775066261668 -0.03118696338936906981 -0.44745381531156303012 -0.94642234401316638337 0.25369090183328096844 -0.12990250046053428146;0.77972662925368574349 -0.89753690272395802996 -0.6022109792081498103 -0.89030265989485035671 0.020995955891492411316 -0.72762477913347523018 0.86441913627896138639 0.21263457733309434894 -0.38007685193993234751 0.0083408616701049886205 -0.13094021831353067076 0.59623265667045033389 0.77622553524471626929 -0.019591227913040628467 -0.92629548866859523493 -0.50310906785843334532 0.92853190172035715566 0.65609093762575687592 0.6973129745505872723 0.21674800843288755114 0.85748287142907508862 -0.87704965211051766349 -0.042886441179673336077 0.71738822046859385129 -0.27685201669637687916 0.33103152682807202023 -0.22965775338592067656 0.31654258950029606767 -0.64508789799320442881 0.97260155158928673913 0.57572340060708748766 0.63504543842998273373 0.079394200678942705718 0.37993251597912885975 -0.28024184908389404569 -0.12277819517737205424 -0.46749346969833938115 0.87769354004416344495 0.51966749256182787065 -0.76124644501324489898;0.36479094464304928636 0.098048649015042538268 0.82042546504913116401 0.43476841726200227134 0.29703238847477964057 -0.33299468291125677855 0.9495245360566834103 -0.88719111774000214421 -0.55372165360793090816 -0.27822377663147640492 0.12013889727497539806 -1.0193538455316930591 -0.14077142259864386387 -0.35705700539909074331 0.74045601070557920398 0.42413497831112273451 -0.65838905393176627712 0.84035768923852904866 -0.50804302804751388933 0.0050956854699805561801 0.10225674321500005659 0.56655054839471052919 0.22351309398006144469 0.32483894657668416217 -0.37901662946085823425 -0.098893169041827488908 -0.53051059124358324048 0.055306827791939877637 -0.11588035726819409521 0.67471505803903530918 -0.11500011965176808182 0.37889045969519352663 0.16551444737834711263 -0.55082225585511723764 0.41601711729113394211 -0.52762036784129495715 -0.5848580208730508323 -1.1119346435111781002 0.38125379918514884503 0.24879741047754475036;-0.74739945235024085601 -0.83768889318984818271 0.78223921714696198482 -0.59392325117788336009 0.75400101524362106442 -0.029848969768148429782 -0.37992617237459291868 0.7273234974840098177 -0.6493514411721128532 -0.70083432258781785951 -0.030663248299814715309 -0.090434234810440536356 -0.52423658384973936819 0.33322200587657824222 0.16150085015702128621 -0.69585780763199545085 -0.86013493104260596578 -0.68050416245798450721 0.057219907881400931815 0.96315338302872754994 0.43310139884418408229 0.26287158627852880155 -0.59182012855847587751 0.67509049961258460471 -0.85808022632388536444 0.61997400671087898871 0.15500152578110062973 -0.79297583294526674536 -0.90477936253689161816 0.83134428414611838409 -0.92981121853383597031 -0.34429358921840491625 0.22266412660086626341 0.85628211326949121851 0.73007627377927786227 -0.47760306021286652589 0.99295505300055053599 -0.47288749069903279754 0.52936719975730084364 0.32424018688826566903;0.89452381981973128067 -0.49322759480556083167 -0.92083874591583114722 -0.70029155132559961494 0.63334887823284680142 -0.10647710246945243928 -0.84636810287463448699 0.32157994360525232747 0.64432395639306005997 0.52534843147767862348 0.14838906537219864745 -0.7156264151174809296 -0.32623144041605944832 -0.97564370817266043989 0.020619937304818682089 -0.91408588769857568312 0.74627404579022627029 0.093474588336030992042 -0.06472803494122607304 0.84618000948967508901 -0.65034475167546634822 -0.98429203358374806054 0.82705604447424219128 0.12987990059461060333 -0.35844740243108164091 -0.33468461385205316994 -0.91098589122322759515 0.77063454023040145469 -0.63093841923294058383 -0.3105478232796825 0.34200291348227906951 -0.96225487438387391492 0.94198954910886523173 -0.56638835411320775926 -0.33334732636455205457 0.48262052641936675768 -0.32139412101014858125 0.48915815367793308299 -0.70156513315933255459 0.22838128826840239927;0.15664023094956289195 -0.3564174408141830841 0.305917673448470262 0.35197257821237970532 -0.33112773042580889715 -1.0393317117540754602 -0.87413334030689515686 0.70384103725564606258 -0.22462783242483372326 0.61072154775507159208 -0.73011671286982560147 0.88303957475164984725 0.66180640037719984381 0.58739861067740806178 -0.82802032864261332357 0.35925903079571375187 0.61298288171252346412 0.9985048248065664378 0.80417210895543533855 -0.65888519841178405656 0.34263305298234120189 -0.84489846978246319065 -0.40895618201914263334 0.40214021074990530247 -0.16613165241398955563 0.29632495381652002031 -0.43952421796671431453 0.17218442467336320112 0.42709258941482886041 0.65025608596815709372 0.51490352542037520767 -0.096550384364678679128 -0.42158114911840549599 0.43562610269730539514 -0.82943421535889894081 0.82630898070593428173 1.0008647685858733656 -0.043184100099787819937 0.78614414256239628642 -0.67589371100447870333;0.89781395837227329082 0.79267481700402642186 0.40004679303009943458 0.70725828278522584469 0.75672903665589263955 -0.32336099368440640589 0.97657455306580898124 -0.90220115448852833406 -0.65247484512521158884 0.28995489808335800364 -0.64777661379174455991 -0.89232390392102323151 -0.63934330434501318585 0.86011332811355134531 -0.76883397401596498266 -0.091969384361465719713 -0.33569167922235165769 0.99280204026447704813 0.29578726763515067466 0.3634642297724679505 -0.37690054105588771671 -0.12725354525902438096 0.51802896269781117944 0.15992576805726818612 0.5892030710844365915 -0.69789694688875303363 -0.20364977730763433872 -0.1191254410681816811 -0.14074026697554017917 -0.52998781477633249981 0.49901098291872814094 0.5058541437979867661 0.63453913595761912703 -0.019137863200002831754 0.34958537214609786137 -0.76460738926804983073 -0.53035117244492036015 0.44862975875532901116 -0.27767512579668229833 0.96066076747403128522;-0.18609789879019120185 -0.55643044660398832679 0.62657735978183515257 -0.28809845402431821793 0.71138008052064360953 -0.84407628811636625787 0.8297504605454785187 0.57307568375663497928 0.052499865045082881598 0.66780914507092603571 -0.0084447877840089276974 -0.79992556955690341525 0.0023513030253122656384 -0.63830044900341897929 -0.74282818687429197357 0.31546047713724673089 -0.01731742087003739286 -0.2449929959584219441 0.39764837680398934516 -0.72241515474707407307 0.24136754870312535082 0.43928716973453557637 -0.068247880724103579531 0.79869707689229318959 0.87188862261763544481 0.17431161788428403692 -0.44883065316396536515 0.46165046684172211799 -0.4986668952989365966 -0.76328614660943594483 -0.48615520034175052633 0.84734184164745462997 0.81113678019644464001 0.05557315232832138463 -0.069913565426520385415 0.84866338864715984425 -0.87027030747097056107 0.57421602225412693432 0.71304654807452172438 -0.87627710321701146601;-0.18607975853338398764 0.360612677151266936 -0.20746887027499802403 -0.26641221332771491959 0.23056881348879010307 -0.29495311947913094297 -0.10044280817087124225 -0.66007033457382557895 0.66907076398435494369 -0.44548079217802538654 -0.11351688376991990459 -0.027572243647793991811 -0.16680847254454783668 -0.42842760937183427261 -0.12936558635281747431 0.85842827853312009267 -0.42272567370888064486 -0.80248534138905458502 0.89485469716088117398 0.15188897841860149462 -0.74321976838087633332 -0.24337490361144881179 0.54956192854560226291 -0.63565280717081218409 0.15939857915448363279 0.76674993042758754491 -0.82453818470668460705 0.71962398766273705242 0.39079672508454399438 0.069813740959554476673 -0.52216685673447127414 0.93663276395688810361 0.69390083579352990206 -0.22122720719069827178 -0.40079290897563224494 0.36255640402476141393 0.26377833114148580007 0.22681770851761676178 -0.27355829081219734666 0.36459081983996566301;0.7894497787500833752 0.76792756115133120609 0.21537764155649666287 -0.28925446048123609755 0.80380338805905549027 -0.89061789157019721763 -0.70957949773534934046 0.88904027573504529336 0.80515994201085949733 0.21637429471941896364 -0.4550233319279252675 0.72563914643536986393 0.97219800601138428586 0.51211128768147751167 0.42696450285531273305 0.65106772310602400999 -0.54084480484540786716 -0.068482772408068798287 -0.36025080322629648988 0.47270089149929650496 -0.27196810081664468672 -0.95186510278192171253 -0.093992193260542047928 0.75573804680775669151 -0.14804362432972373309 0.17288959410271373396 0.2858406420200891862 -0.79030030502780068691 -0.17792261877753945409 0.16394515695259581634 -0.40271923725383351744 0.16258506598884361893 -0.46413083626988682617 0.60527442378556672864 -0.89749296116460886008 -0.34771790736184388093 0.70109938166051877229 0.7861522541958650967 0.21164898242257906835 -0.78510170254547295698];

% Output 1
y1_step1.ymin = -1;
y1_step1.gain = [2;2;2;2;2;2;2;2;2;2;2;2;2;2;2;2;2;2;2;2;2;2;2;2];
y1_step1.xoffset = [0;0;0;0;0;0;0;0;0;0;0;0;0;0;0;0;0;0;0;0;0;0;0;0];

% ===== SIMULATION ========

% Format Input Arguments
isCellX = iscell(X);
if ~isCellX
  X = {X};
end

% Dimensions
TS = size(X,2); % timesteps
if ~isempty(X)
  Q = size(X{1},2); % samples/series
else
  Q = 0;
end

% Allocate Outputs
Y = cell(1,TS);

% Time loop
for ts=1:TS

    % Input 1
    Xp1 = mapminmax_apply(X{1,ts},x1_step1);
    
    % Layer 1
    a1 = tansig_apply(repmat(b1,1,Q) + IW1_1*Xp1);
    
    % Layer 2
    a2 = tansig_apply(repmat(b2,1,Q) + LW2_1*a1);
    
    % Layer 3
    a3 = repmat(b3,1,Q) + LW3_2*a2;
    
    % Output 1
    Y{1,ts} = mapminmax_reverse(a3,y1_step1);
end

% Final Delay States
Xf = cell(1,0);
Af = cell(3,0);

% Format Output Arguments
if ~isCellX
  Y = cell2mat(Y);
end
end

% ===== MODULE FUNCTIONS ========

% Map Minimum and Maximum Input Processing Function
function y = mapminmax_apply(x,settings)
  y = bsxfun(@minus,x,settings.xoffset);
  y = bsxfun(@times,y,settings.gain);
  y = bsxfun(@plus,y,settings.ymin);
end

% Sigmoid Symmetric Transfer Function
function a = tansig_apply(n,~)
  a = 2 ./ (1 + exp(-2*n)) - 1;
end

% Map Minimum and Maximum Output Reverse-Processing Function
function x = mapminmax_reverse(y,settings)
  x = bsxfun(@minus,y,settings.ymin);
  x = bsxfun(@rdivide,x,settings.gain);
  x = bsxfun(@plus,x,settings.xoffset);
end
